encog,BasicNetwork,java,3.3.0,1,1482750410459
[BASIC]
[BASIC:PARAMS]
[BASIC:NETWORK]
beginTraining=0
connectionLimit=0
contextTargetOffset=0,0,0,0
contextTargetSize=0,0,0,0
endTraining=3
hasContext=f
inputCount=10
layerCounts=1,6,12,11
layerFeedCounts=1,5,11,10
layerContextCount=0,0,0,0
layerIndex=0,1,7,19
output=0,0,0,0,0,0,1,0,0,0,0,0,0,0,0,0,0,0,1,0,0,0,0,0,0,0,0,0,0,1
outputCount=1
weightIndex=0,6,66,187
weights=-0.6336146238,-0.3165815367,0.5330425974,-0.4807986922,0.1841175457,0.184318861,0.2792822171,-0.6774452793,-0.6890165146,-0.5754383257,-0.085204776,0.4321168061,0.5586756562,0.9632210205,0.283908089,0.0019442868,0.3290068883,0.6284482208,-0.4888630006,1.0093543586,-0.511772953,-0.4051561297,0.4933266007,0.3322639729,0.829950168,0.3461622526,0.8382101732,0.7850508587,-0.6693903603,0.4519631025,0.6295222849,0.2649605847,-0.4793931043,-0.7199270348,0.3309323428,-0.9275817093,0.495697271,-0.4413952666,0.5852069713,-0.1379728157,0.1787863562,-0.299864467,-0.0949353893,-0.1176128508,0.8973509174,-0.1880056132,0.3505448449,-0.3887617975,-0.1946758656,-0.2769575306,-0.5957085779,0.3959002551,0.2118301975,-0.811543589,0.5026354467,-0.6994273081,-0.1605259417,0.6574717125,0.0660530827,0.7705380479,1.0077670854,0.9765544593,-0.438055336,0.4205063784,0.9594426277,0.7778170463,-1.0731705903,-0.7731295158,-0.5480768286,-0.402022783,0.6946718453,0.0916096369,0.0294033249,0.717111681,0.8468071344,-0.805198228,-0.8561676198,0.445157572,-0.6202136348,-0.4348919896,-0.9161017278,1.3986616051,0.8108016875,-0.150588725,-0.4498615114,-0.7645540207,0.0464458224,0.0899049584,0.5967308761,-1.5871285228,-1.3842569584,0.402889792,-2.4330071812,0.696942269,-0.6960437585,0.3147867744,-0.0135186076,-0.3687129932,0.1781339056,0.6417656397,0.4074082833,0.2058288391,-0.1630680037,-0.3136895151,-1.4213524698,-0.7834847197,-0.141590756,1.6418902701,0.4564452385,-0.2455792262,-0.7791234299,0.7631391901,-0.5433309313,-0.1826179412,-0.6609511293,0.2081916479,-0.2838061092,-0.5059015386,0.8484532469,0.0990930316,-0.2162172651,-0.5934288827,-0.0339047189,-0.0490649593,-0.6077898638,-0.5368987596,-0.7085373632,0.0288376617,0.9521821067,0.6638949795,-0.4928266942,-0.5161519678,0.1162422473,-1.6249063538,-2.7360001937,-0.4735525881,0.1267748044,0.6931255599,0.9027613446,0.9756552339,1.254064661,-0.4615607793,-0.3299522258,-0.0595547803,-0.1324465067,0.3321426524,-0.1010368125,0.529022458,-0.0369328386,0.199779959,0.0074098574,0.0538087201,0.7768643975,0.5201143711,-0.1736691784,-0.0707991891,-0.2738531244,0.5814057068,0.2934919047,-0.0330908904,-0.8099319973,-0.4613246281,-0.627953257,-0.8902026121,0.378226834,0.0899505598,-0.59898227,-0.4686965043,0.3914142466,0.5049165929,0.4976670738,0.6805897021,0.1674690096,0.6393491144,-0.5789313514,-0.7497028094,-0.0883503286,-0.3091016163,0.2221584294,0.1155367597,-0.9236046242,0.3224669668,0.820446997,0.8865261705,-0.4449460796,0.4421776586,0.5886377139
biasActivation=0,1,1,1
[BASIC:ACTIVATION]
"org.encog.engine.network.activation.ActivationTANH"
"org.encog.engine.network.activation.ActivationTANH"
"org.encog.engine.network.activation.ActivationTANH"
"org.encog.engine.network.activation.ActivationLinear"
