encog,BasicNetwork,java,3.3.0,1,1482774609099
[BASIC]
[BASIC:PARAMS]
[BASIC:NETWORK]
beginTraining=0
connectionLimit=0
contextTargetOffset=0,0,0,0
contextTargetSize=0,0,0,0
endTraining=3
hasContext=f
inputCount=20
layerCounts=1,13,46,21
layerFeedCounts=1,12,45,20
layerContextCount=0,0,0,0
layerIndex=0,1,14,60
output=0,0,0,0,0,0,0,0,0,0,0,0,0,1,0,0,0,0,0,0,0,0,0,0,0,0,0,0,0,0,0,0,0,0,0,0,0,0,0,0,0,0,0,0,0,0,0,0,0,0,0,0,0,0,0,0,0,0,0,1,0,0,0,0,0,0,0,0,0,0,0,0,0,0,0,0,0,0,0,0,1
outputCount=1
weightIndex=0,13,565,1510
weights=-0.8738178017,0.7314952049,-0.0994012651,-0.7767490254,0.3360532637,0.7448305138,-0.0632365657,-0.2561809288,0.5691260578,0.0527609205,-0.0791538764,-0.3375419275,-0.833073614,0.3593149131,0.6486590027,0.18841831,-0.6804706621,-0.2840964801,-0.1611148218,-0.463410286,0.1728451449,0.423383566,0.1975170683,-0.6963371869,0.7647046201,0.3471537615,-0.9387629887,-0.716432741,-0.8861694354,-0.335901851,-0.1674051896,0.2938243971,-0.9508618025,0.3164735651,-0.5964686527,-0.1429529191,0.5210161267,0.8651644689,-0.4289462557,0.858903482,0.4525525353,-0.9034639595,0.0663640177,0.0981588591,0.6766378294,0.8524569374,0.7732938372,0.6381461058,0.5174872929,-0.2524599112,-0.9621731624,-0.4437153426,0.1944688872,0.5671640008,0.9965555087,-0.0643048948,-0.6593501223,-0.5510191673,0.1137649313,-0.3395762627,-0.3590169996,0.9720272013,-0.0511238808,-0.9304440089,-0.8746518483,0.9911270506,0.4997021657,0.1528373274,0.0308558632,0.4305442804,0.7776707982,0.3698923641,0.4060073044,-0.6204561678,0.592230553,-0.1030768668,-0.5334974431,-0.5854036904,0.658554376,-0.8679826132,0.4856523054,-0.2418046295,0.5333272694,-0.5010850048,0.8207923242,-0.7297846227,-0.7708293599,-0.9713893967,-0.7834408773,0.6557002987,-0.2204269288,0.732920528,-0.25739828,0.2539597453,0.7579495849,0.5420658798,-0.3055482793,-0.9106894217,-0.6440199005,-0.840142718,-0.3604632936,0.2690803077,-0.9657624696,0.78454935,0.7303472768,0.3480667722,-0.8526613904,0.8531241391,-0.3444026893,-0.2546358594,0.0893192804,0.4878872513,0.7470453772,0.1215909654,-0.1294563434,0.4828849489,-0.4446462859,0.1594713021,-0.384400334,0.0076476693,-0.6674854253,0.5320093761,0.7186696873,-0.9334166105,0.0414395089,0.5514893752,-1.0369589053,-0.4348309414,0.0055864812,0.6371023313,-0.5498598012,0.6339260196,0.2312214866,-0.1635580773,-0.2611977018,-0.0235972324,0.1637245204,0.680673828,-0.5321585367,-0.3386987239,0.7799348975,0.912164191,0.7065632429,0.3307172147,0.0860298192,0.3792256202,0.2123993951,-0.7504805075,0.0476842857,-0.4078221932,0.324801324,-0.8064385654,0.2442479316,-0.8466949533,0.3772857011,-0.9498377709,-0.7498950727,-0.1882349544,0.9752266237,0.8815603415,0.386806877,0.1410951269,-0.4128081657,0.2130167289,-0.4078561753,-0.3937918074,0.4933667051,0.5997090732,-0.8926889458,0.307436866,-0.4412071614,0.9152449354,0.3493667281,0.7100353526,0.8418738652,-0.8668175086,0.9846211552,-0.3697973451,-0.4058199652,0.7241006559,0.3527433233,-0.0625547552,-0.4129735789,-0.7053236208,0.2336599527,-0.5066491594,0.9317803441,0.2060937039,0.6927800013,-0.2408496482,0.8758544577,-0.0995603518,0.3258445088,-0.4949457197,0.4145779599,-0.0493658801,-0.4840324342,0.2100861927,0.3663841632,0.7397783948,-0.3021085947,0.6823058566,-0.0956787327,0.2421084265,0.3729198539,0.4697529019,0.2282998745,-0.2058241458,-0.5907805596,-0.6013529303,-0.2871913111,-0.1241446379,-0.8867481241,0.1937336192,0.7253384677,-0.2344325062,0.0025834513,0.9277489011,0.6879292414,0.0824699982,0.7146267576,-0.1617578126,0.9619250238,-0.3627564893,-0.3568213761,0.6263630889,0.5395046477,-0.6132725672,-0.8081212842,-0.1704023545,-0.3564067791,0.2293484585,-0.7262482567,0.9962707803,0.1835280445,0.2318805575,0.0281247105,0.1994789149,-0.259781669,0.5198662111,0.5384755723,0.8562408125,0.7189648515,0.5568373145,-0.9235146037,0.3009430208,-0.9956255568,0.1694273456,-0.6408136902,0.367148645,0.3140308127,0.8308778384,0.9203051118,-0.9200300298,-0.6975936281,-0.8492959421,-0.8709343691,-0.5224532527,0.2109181128,-0.7073575299,0.5515698529,0.1441536437,0.4012368894,-0.0148364441,-0.6107716877,0.8598901055,0.2593873445,0.6805143545,0.0635047473,0.4318851865,0.0255691975,0.8329719808,-0.2967779029,0.1929769515,-0.3076181186,-0.7364727026,0.3951990113,-0.6725222759,0.9601530545,0.4905603343,-0.6191604336,0.8011708812,0.5907318893,0.4100290601,0.1907797393,0.8846527682,-0.8930146782,0.1545610363,-0.9756927108,0.8249446177,-0.7571819867,-0.8924908754,-0.9522522609,-0.0487424047,-0.8785215964,-0.3038569446,-0.5363798011,0.4014183983,0.8385934562,0.6928876273,-0.9414453336,-0.4540212964,0.2122326728,0.3453448287,0.884915922,-0.2724266873,0.4400477188,0.237329126,0.1709960334,-0.324709116,0.1817690939,0.015619702,-0.8415084662,-0.0309281004,-0.7325589675,-0.21660924,0.2261889919,-0.7276514975,0.9445194276,-0.0383440577,0.1298749124,-0.5870998773,0.3142388262,-0.3680657178,-0.9355363818,0.6589886425,-0.4992022445,0.8343139229,0.7655035509,-0.7797761906,0.1427925224,0.2409805398,0.6315385442,0.6366565238,-0.1794219834,0.4049589937,-0.2832830471,0.6748652639,-0.0002203712,0.2545428265,0.8141299387,-0.916411456,0.0905778953,-0.0587695972,-0.917876167,-0.3888532467,0.087808423,0.8246206511,-0.7870473832,-0.2624791727,0.9696049344,-0.3883256091,-0.3926716292,0.9138565025,0.5731004305,-0.6984629346,-0.0290895906,-0.2368038009,0.943752048,0.5617210269,0.6967182089,0.7663466438,-0.4278458016,0.9339400915,-0.5468929103,-0.3639847968,0.6990931956,0.9147983271,0.780527047,-0.0370566968,0.2125178953,0.5209053394,-0.9779569734,-0.962806121,-0.2670181838,-0.3767978126,-0.9854675388,0.6778481175,0.527089814,0.9001537781,0.1259531453,0.5152628099,0.2898481389,0.2447551896,0.0302337087,0.0658668736,-0.0475095938,0.4300566645,-0.122109984,0.3049778458,-0.2806915945,0.9630913969,0.7804346168,-0.8003091595,0.2850450896,0.8014298263,-0.0788272029,0.6437395962,0.4862591159,-0.1331441819,0.6828196995,0.1350332247,-0.2252555509,-0.0459718687,-0.4325537476,0.4703428826,0.8507078379,0.8927620969,-0.0876309794,-0.4854720879,0.2290013465,-0.5018732191,0.6004636196,0.9678317116,-0.3095602408,0.7681352837,-0.5645647097,0.8309035222,-0.1165775316,0.6278796536,-0.9013714184,-0.8858694316,-0.811856953,0.4765674115,0.4839023916,0.0855928358,0.8271322965,0.2984097742,0.8490390206,0.8549499432,0.1265946394,0.1098313951,0.3918901067,-0.8665603555,0.0459542859,-0.2479617983,-0.3176028204,0.8286653957,-0.2714555383,0.56307014,0.0334010671,0.9116535609,0.1152330862,-0.3189590761,0.9042450379,0.2984642976,0.2019885933,-0.89265453,0.223842159,-1.0224426575,1.0302820284,0.8966718507,-0.233267859,-0.464068096,-0.3364383732,0.7200942018,-0.3380090513,0.7850547856,-0.3590170217,0.7526756963,-0.5020912584,-0.0535360225,-0.3184707936,0.1245902221,0.7837945678,-0.7217247514,-1.0265325095,-0.4603431291,-0.0452752814,0.6661072775,-0.2959682494,-0.1692614582,-0.3818012315,-0.6183899004,0.2751796282,-0.2801001882,1.0459422415,0.4798340142,0.9632248081,-0.3658713876,0.7392800715,0.1141604698,-0.8103600942,-0.2824167012,0.4408360175,-0.5748842142,-0.8084528529,0.6560175554,-0.2606614597,0.7604513952,0.1289243569,-0.8183511732,0.806431311,-0.7763820153,0.6458792304,0.3018577075,-0.0970364955,-0.6266681398,-0.2821825218,-0.7777643434,-0.3131366805,-1.0238854523,0.6978055112,0.3908244332,1.0714797359,0.5215136702,0.1095321193,-0.3627031788,-0.5889631181,-0.4349868229,0.7938706775,0.5491750564,-0.6147920205,0.6049616123,0.6860745317,-0.0859417839,-0.0240541478,-0.0928729829,-0.7967238089,0.1696669106,0.6433354683,0.4517155177,-0.7219993115,0.852365921,0.8396803496,-0.2674974522,0.7294688227,-0.5049245546,0.6617972003,0.0926899768,0.1276964437,-0.7396753734,-0.4839557634,0.4120784504,-0.0910744823,0.1731783004,0.5994481938,0.0796096982,-0.9272043868,-0.6400474089,0.7611757535,-0.5545385804,0.5759143924,0.5052594367,0.6551400664,0.4734268957,-0.1395980829,-0.190987796,0.0363137731,0.5147311796,-0.2208658088,-0.079246237,0.6725884857,0.7363091374,-0.4018385344,-0.6963154979,0.0873712207,0.3557362434,0.1298146806,0.1753502894,0.5350425669,0.1672506652,0.3541338477,0.6543759247,-0.3743748099,0.7384894214,-0.7445601304,-0.7445780242,0.9205227097,-0.7244431392,-0.8501193342,0.1978981863,0.7965168402,-0.8327301503,-0.6319436802,0.2186581175,0.5191285985,-0.4847083233,0.0187006751,-0.1969586146,0.8125184615,0.4962974255,0.7016504241,0.804426634,0.3978037127,-0.1737789758,-0.8125029834,0.0473847921,-0.2724025735,-0.299661183,-0.7308883028,-0.3837445007,0.0543056797,0.4248992632,0.2218305081,1.2128855186,0.0463508067,0.7934745141,-0.8364075037,0.2071166071,0.6630557728,-0.711927674,-0.2042806488,-0.9328177986,-0.6788834287,-0.3025449187,-0.6327100154,1.0667811037,1.1404686787,0.0787692811,0.5998496526,-0.3313733401,0.2412704301,-1.5063989933,0.6617325185,-1.4663051376,-0.8975193216,-1.4583866142,-1.1264247168,-1.1341529938,-0.6365148116,0.3913980888,-0.6776388001,0.5489227976,0.8109692184,0.6462240712,0.8395975235,-0.328319575,0.0403246953,0.3452608642,0.5990603039,0.1406697694,-1.1841799143,0.6519776788,0.8862328143,0.8535365273,0.3459733811,-0.3563919503,0.2193107283,0.7610078414,0.2024959333,-0.4942013713,0.5832686813,0.8698550651,-0.5194204885,-0.1322214724,0.7739972852,-0.703135586,0.834439265,0.1623064611,0.2433311094,0.0610765941,0.1790143532,-1.0707212082,0.4302794326,-0.2673635654,0.9478231944,0.284903474,0.0122365901,0.0559066443,0.7765092261,0.7300238032,0.6299837655,-0.4810193837,-0.0525574356,-0.9932175837,-0.7349261502,-1.0372472006,1.0151628656,0.634842844,-0.8627510213,-0.5975933285,-0.3687015905,-0.0719653048,-0.4818237334,-0.7646363699,1.0103459382,-3.4288058145,-0.1231441838,-0.9033111827,0.2674498964,-0.5986742574,-0.5840450202,-0.8787205969,0.0165387833,-0.7734319992,0.2468658866,-0.3163332214,0.2617558101,1.1228330192,0.4634553836,0.2331454672,-0.1841927341,-0.4443765066,0.8852152199,-0.6619101147,-0.13941247,0.4558344509,0.5344771527,-1.0256523532,0.5611262975,0.41032698,0.6599523056,0.4591988049,-0.052673119,-0.3396215028,-1.0508586444,0.651855241,-0.8189935322,0.9395069241,0.1882579388,-0.1189385305,0.9782387695,0.8546049766,0.2828097317,-0.4126262377,-0.1607726192,0.788101974,-0.8766120632,-0.0921866969,-0.7684912055,0.673239444,-0.3042451684,0.1487080752,-0.7457614278,-0.920836179,0.1949511742,-1.252647716,0.3681279228,0.2506460017,0.4229133401,-0.3114364078,-1.1724758274,0.8874772423,0.654183955,0.6322874751,1.2106460707,-1.8376330632,0.5558042807,0.0757070932,-0.9646437953,-0.1730876589,-0.7990709818,0.7355261758,-0.7490925157,-0.5153898364,0.0102829509,0.467542278,-0.3711471597,0.5715287651,-0.6220898555,0.6570868784,0.212892727,-0.1836174701,-0.151108717,0.6905888047,-1.0461000998,-0.1722271283,-0.4321748206,-0.6334117882,0.3180780223,0.6648622771,0.8831923409,0.3084787647,0.4534892857,0.4645595256,0.5823383884,-0.7481069819,1.0191793102,-0.651120201,-0.2951299285,-0.2598803126,0.2487150924,-0.6189189748,-0.8071599362,-0.9083694714,-0.0267320449,-0.9980466487,0.740806578,0.7538402204,0.3915178492,0.9720572464,-0.4681833746,0.0252682425,0.8631019523,0.3059226439,-0.4925362528,0.3103004468,-0.1836596501,-0.0232505811,-0.5474372462,0.029424419,-0.0881483314,0.538517606,-0.2601670363,0.6698066438,1.0873727528,-0.5882190171,0.1440894631,0.59875207,-0.7722128801,-0.3176810518,0.3303449666,0.4456935907,1.0294094314,-0.3821626472,0.2876674737,0.2479709063,-0.551130868,0.225399748,-0.8177595084,-0.6781899939,-0.4134347889,0.1560868411,-0.0299864472,-0.2367965796,0.2830896728,-0.1277432747,-1.2466020846,1.1224134158,-0.5436763451,-0.7304142965,1.0531886248,0.5003296233,0.2048208286,0.6818005696,-0.0154597753,0.4978490256,-0.3941383226,0.2941799475,-0.4240971049,-0.5283144209,-0.2193273504,-0.6534467247,-0.0842339075,-0.7688090969,-0.6532647845,-0.5287608555,0.2037683123,0.6703466842,-0.0884484721,-0.5677529325,1.4102749255,0.7559743781,0.539538665,1.2373443331,0.9178027747,1.1375428183,-0.1306929581,-0.1333827916,0.528656334,-0.2564339683,0.67288147,-0.6567176509,0.4492437654,-0.15704682,0.8925150525,0.1595058371,1.2054949241,-0.6162184813,-0.5611778021,0.309344848,-0.0591192969,-0.1771193423,0.4138640276,-0.606281418,0.6161232129,0.9901305563,-0.1952864129,-0.1585570361,-1.046369374,0.2914942872,-0.816230361,-0.3914177115,0.7382990341,-0.0082259086,0.6825728564,-0.7620444858,-0.3873623707,0.577527908,0.2700298814,-0.5162493071,-0.616008714,-0.3349586387,-0.033365288,-0.2975854588,0.6480328266,-0.2496838549,-0.2371686944,-0.0890758358,0.6132168469,0.1757245344,0.8338652673,0.2275180438,-0.3703577805,-0.2286047197,0.1735467145,0.4730947192,-0.7379537305,0.085995939,0.5731818956,1.2415955484,1.9204883888,0.1060902593,-0.3775843723,-0.3964370821,1.3345601268,0.7042349664,0.0253685838,0.2411510462,-0.3618837923,-0.7773616921,-0.9277291201,0.4186205057,0.7078349554,0.198244141,0.7146491049,0.5038155962,-0.9809638241,-0.6464661729,0.6276486391,-0.3055577612,0.5250475856,0.7723296092,-0.1701325811,-1.0358332765,0.6138945572,0.8316986322,-0.8487777841,-0.1176723597,-0.874722474,0.189697007,-1.9792216678,-1.8263578737,-0.550324498,-0.3769828587,0.4905839862,0.3830848771,0.3217368482,0.5211466604,-0.2375586752,0.6052726156,-1.0315480419,0.2149702842,-0.7756856126,0.2154117625,-0.4511242029,0.8037438043,0.5885385454,-0.7435136202,-0.2633621876,0.7447233542,-0.4286346067,0.1721058998,0.3544214656,-0.8665652232,-0.6906633536,0.218488756,-0.1519009096,-0.692110737,-0.9023712907,-0.3331651021,-0.8636045162,0.8863522955,-0.4492151453,0.0648321409,0.999088768,-0.8319922736,-0.1754058872,0.4012035991,0.4228148325,-0.0856493341,0.5440363549,0.8560461052,1.0574177214,-0.0167235759,0.2292192698,0.6642771883,0.7477225607,0.8147297437,-0.0265592357,0.4828104258,-0.7810124142,0.6418828944,-0.5050930712,0.1662330628,0.5272366937,0.762145124,0.91540135,1.1831037085,0.021410771,0.0517202168,1.03264484,0.5378353524,-0.7554686704,-0.8277272524,0.0750220466,0.3304414716,-0.3923120548,0.5073536092,-0.3634117242,-0.5756205887,0.811446724,-0.3661541093,-0.381201996,-0.243007797,-0.4186246382,-0.9202195212,-0.5899727311,0.1897145346,-1.0582912496,-0.8255150328,0.4246157138,0.7226624708,-0.0044516063,0.1814270697,-0.8606353981,-0.0932054074,-0.5157927608,-0.7332078207,0.1967905087,0.2396237679,-0.3194127556,-0.4158033036,0.0489882937,0.3436188571,-0.1943620909,0.5485390992,0.1654063177,-0.636016259,-0.5711031309,-0.7912546839,1.0010810353,-0.4062669967,-0.1755928573,0.1731507856,-0.575886934,0.3312311205,0.6254727375,0.9468273397,0.9820553373,0.6560928676,-0.5745280502,1.2301205028,1.0574925176,2.2769387097,0.9498981823,0.508546045,-0.4414460588,-0.2611992719,0.583159576,-0.0212099834,-0.4475611925,0.1843404862,-0.3446827103,0.4700337248,0.360667889,-0.2823548822,-0.1600638393,-0.7874781265,0.4440004338,-0.2878007274,-0.3322622726,0.6042218039,-0.516826259,-0.0748993893,0.0117705479,-0.0988175097,-1.1567726972,0.8421900457,-0.7417016787,-0.1079884414,0.3380095037,0.9090412848,0.9497989211,-0.8710032648,-0.9617973261,-0.9985127802,1.4823757189,-0.2845974724,-0.1213835585,0.0823858776,0.8363004143,-0.7215374445,0.4959621668,-0.3999126284,0.5946612367,0.0343158843,-0.5160625154,-0.6507259795,-0.8116702847,-0.9438336676,-1.4065521551,0.5079708886,1.0429855629,-1.7239199019,0.2548260418,0.8537735944,0.241216952,-0.9700682097,-0.442246049,0.2477110076,0.0657451328,-1.1588765199,0.0059261073,-0.8417795683,0.4233823839,0.1569301307,-0.9574326652,-0.0487725592,-0.4119587093,-0.469981145,-0.2179483424,0.8956673762,-0.4900706243,-0.8798395792,0.5059546416,0.5392315638,-0.5599056735,0.0587742358,-0.0078493891,0.7406139067,-0.1730044289,0.3909069786,-0.8136234603,-0.802770952,0.4803986736,0.40107346,-0.2968671161,-0.6782759242,-0.5767183724,0.2714180971,0.6640936467,-0.9045977682,-0.1396809116,-0.37994187,-0.9556183717,-0.2465605513,0.712390723,1.0436529372,0.8632079205,0.4879686126,-0.172432864,0.3866063233,-0.0176519493,0.2615249836,-0.7760922925,0.6815257347,-0.9663701219,-1.0283810494,0.0853782602,-0.0007149578,-0.1160072202,-0.5181821495,0.6065395776,-0.5582695821,0.2861177167,-0.3818090765,0.7642292745,-1.0553839203,0.0664400381,-0.4450339943,-0.4507242254,-0.3880136447,0.0845828301,-1.2534182069,0.925150138,-0.5790715334,-0.5505629638,0.4510266314,1.1954812463,0.0194634647,-0.5476460935,-0.595106146,-0.7782392328,-0.9351514301,1.1362064691,0.784161738,0.5244841321,8.6989615639,-0.5986144084,0.8742353912,-0.2818788301,1.0315849111,-0.6039419149,1.4782127811,1.077278712,0.6859118123,-0.1313028391,-0.6029055643,0.501557654,-0.0046439493,-0.3125890259,3.0915836683,0.6365215078,1.0122299872,-0.0233085481,-0.2815136544,-0.0665215205,0.7557867274,0.9334621583,0.4742481633,0.181218079,-0.9253393944,0.0584207503,-0.3059572749,0.0447394451,0.0769352122,0.7957818049,-0.2905006649,-1.1178172773,0.5906267016,0.8633876924,0.1292462668,0.0014373635,0.2646543782,-0.8601822881,-0.7275295087,0.4228163847,0.4515601409,0.0667042836,-0.7806060404,0.7560437291,-0.0868837442,-0.6801047342,0.5949755769,-0.7638270926,-0.6597636336,0.3481405059,-0.304165655,0.6844665274,0.5991691334,0.0777315649,-0.8656239497,0.6577131999,0.2105181688,1.0718602397,0.5864960691,-0.2427752811,0.4621219081,-0.5998493411,0.1920421707,0.3549196477,-0.3166761309,-0.554029365,0.788506584,-0.1070933934,-0.7225546573,-0.7895401081,-0.6533722638,-0.146962657,0.0292564659,-0.7756229353,-0.9406662492,0.0883755919,-0.2088687157,-0.2361703623,-0.424612251,-0.1207224245,0.8093509611,0.5692280463,0.6859365609,-0.631747796,0.1848040225,0.4137210851,0.5212077244,0.0424696464,1.029357586,-0.1873916786,0.8019451287,-0.8751342839,-0.9458770579,-0.0449582383,0.1927459964,0.4004231292,-0.4205013612,-0.6984447869,-0.4642875789,-0.2168670694,-1.0975495503,0.5925676392,-1.0783065176,0.3592154153,-0.5732279904,0.2999801494,-0.6268890205,0.8638132462,0.0309538002,0.348802799,0.2002426892,-0.1025415733,-0.3343651122,-0.4298335577,-0.5306008416,-0.7501677585,0.0662424856,0.3548139685,-0.0363778072,-0.2079979163,-0.1904070932,-0.7548506577,-0.0722567487,-0.3302223423,-0.8588065591,-0.4998535075,0.5643739442,-0.5641953371,-0.6399357862,-0.3869181971,0.0890455053,-0.8630908149,-0.20563779,-0.3214005816,-0.6509622961,0.9237939137,0.625152676,0.812656595,0.2019249717,-0.0123153394,0.948223311,-0.2153797067,1.0647532168,0.6018987383,0.0875081994,-0.209316057,-0.4823260568,-0.4007683808,0.0061993942,-0.3199144212,-1.3132389622,-0.8194511866,-0.6615063239,-1.4916316414,-0.1074880464,0.507701313,0.5375154381,0.6024077786,-0.4021716443,-0.3420593556,-0.678774618,-0.2707080251,-0.9412501142,-0.0011845054,0.829825434,0.6017380598,-0.4035698436,0.2865053188,0.5532416253,0.177838993,0.7699096455,-0.4933479429,-0.4095331416,-0.0428700587,1.114122709,1.0711074795,0.5364925987,0.3099293845,0.9517889156,-0.9332358252,-0.2712291117,1.394880562,0.3911739164,1.2289311374,-0.2248210938,0.8668597224,-0.6167041838,-0.6275824136,0.0614437835,-0.1058221038,0.0926535899,0.9170819883,0.0645465348,-0.1109594396,-0.944975668,0.9221931904,-0.2943627159,-0.5621171902,-0.0165448508,-0.7362715295,0.603472944,0.0592815984,-0.2279347155,-0.1757500441,0.7506983406,-0.45804441,-0.0203481179,-0.4070500861,0.7827163281,0.2535612073,0.2479156025,0.7448380394,-0.6677283833,0.184965508,0.5013844379,-0.9446250646,-0.1775350139,-0.2200112112,-0.8024626553,-0.1054990748,0.2102353937,-0.4437283483,-0.7836799673,-0.9112604679,0.2743476688,0.548110347,0.108683081,0.0302178557,0.1704058512,1.0581157734,1.1956727576,0.957483503,-0.8224350868,0.73831224,-0.5003556345,0.5810135186,1.0073331656,-0.9342329082,-0.504289128,0.2851879408,0.9053047925,-0.4925515604,1.0930388156,-0.4443068693,0.0754572086,0.7133347031,0.1500836275,0.9512938238,0.9381770852,-0.6716883328,1.0124225175,-0.6613450416,-1.4926363543,0.2407840651,0.3113598948,-0.144053789,0.3422711045,0.1194363873,-0.582652131,0.7592858178,0.5401403585,0.9147574088,-0.2847799924,-0.0943079261,-0.2246190992,-0.0592932332,0.1536831113,-0.4649414625,0.906965209,-0.4109878334,-0.2211092882,-0.0247708431,0.5351469391,-1.2139748662,0.5341438166,0.2639062912,-0.4858876476,0.9262152898,-1.0392397605,0.6684135841,-0.8698277862,0.321068452,-0.7512513508,-0.1444330949,1.0844510964,0.5130390395,-0.6403937955,-0.383999383,0.9737127427,1.1954370247,0.724959543,0.3347292773,0.9254597221,-0.0184697207,-0.2168811562,-0.2250938129,-0.875524036,0.5441506916,-0.6769007746,-0.560715999,0.1824714907,-0.7803282165,0.7877144023,0.1392548024,-0.5912623355,-0.7250017103,0.015424249,0.1325635865,-0.8604410103,-0.0598007121,-0.4388738989,-0.3362907311,3.2204854189,0.8305567267,-0.7507163869,-1.014587361,-0.1708480712,-0.8795871612,0.5385156284,-0.8647715099,-1.0378573654,-0.3779185404,0.7382308689,0.2969759239,-0.3829280402,0.3010135522,1.1961957568,-0.4192071645,-0.0392506238,1.1477682546,-0.5759965774
biasActivation=0,1,1,1
[BASIC:ACTIVATION]
"org.encog.engine.network.activation.ActivationTANH"
"org.encog.engine.network.activation.ActivationTANH"
"org.encog.engine.network.activation.ActivationTANH"
"org.encog.engine.network.activation.ActivationLinear"
