encog,BasicNetwork,java,3.3.0,1,1484594424205
[BASIC]
[BASIC:PARAMS]
[BASIC:NETWORK]
beginTraining=0
connectionLimit=0
contextTargetOffset=0,0,0
contextTargetSize=0,0,0
endTraining=2
hasContext=f
inputCount=20
layerCounts=1,21,21
layerFeedCounts=1,20,20
layerContextCount=0,0,0
layerIndex=0,1,22
output=-0.9565671306,-0.1181547847,-0.0876033836,0.9990236635,-0.9999998478,0.9709385068,-0.9995156921,-0.9350006429,-0.9999898514,-0.2567502792,0.9963179773,-0.5669573335,0.9999939318,-0.9966418235,-0.9999965478,0.8561669598,-0.3250447422,0.9036357565,0.5445898656,0.9999937091,-0.8120101052,1,1,0,1,0,-1,0,1,0,-1,0,1,0,1,0,1,0,0,0,1,0,1
outputCount=1
weightIndex=0,21,441
weights=-0.9092642061,1.5961241613,1.0873517806,2.2704647813,-0.4062021441,2.6094532599,1.8576465595,-1.4316034601,0.8887687589,2.1612456574,1.9863563644,-2.408090012,-1.9142073609,-2.6366025324,1.3993611768,0.4785250315,-2.6946136763,0.4805491743,3.1481529455,2.7967805934,-0.0610311539,0.8988107997,0.6099362082,-0.1155661628,0.3881866879,-0.0285420418,0.5726076379,1.0581910022,-0.3328182319,0.9603773147,-0.0574877208,0.2705702502,-0.0652324952,-0.7475674718,-0.9493320465,0.6450760539,0.2354736829,-0.8133054185,-0.7443566544,-0.9445992293,-0.8525449578,-0.2517892414,0.1443952322,0.4544048778,0.1784769978,-0.0789216488,0.2083455364,-0.6714762798,0.6558806583,0.3131173625,-1.6289921286,-0.9422922945,-1.4710022734,0.3300449036,0.4270318971,0.4597252497,-1.321833766,-0.796940715,0.9061947778,0.190883853,-0.5513825771,-0.1352839559,0.4299587179,-0.1198893588,0.2686842147,-0.2337585278,-0.467542902,-0.0150699062,0.7306497359,1.2612240491,-0.6877082082,0.0803252483,-0.4550244119,0.7199088287,0.4087380886,0.7660583612,-0.3979873436,-0.3057576314,0.4415198484,-0.3865128017,0.8209629424,1.2594405648,0.5902199644,0.5302101282,-0.8254227601,0.920740803,-0.645140928,-0.1578767697,2.2477498561,0.9866147163,0.5707976197,0.2469598116,1.724431915,-0.7242840766,-0.8168519221,0.6764201725,-1.9499031764,-0.6946161302,-0.116954546,0.2574445633,0.8650794945,0.4814945142,-0.2231444297,-0.7708219783,-0.2168738963,0.3292478082,0.6541720936,-1.0578153913,-0.1870967495,-0.7698508611,0.1870454833,-0.6580791829,0.6340618735,-0.5709182227,-0.1735838199,-0.0650198488,-0.4856912434,0.7244118589,0.8490607915,0.798921686,0.777150424,0.5736219919,-0.545142876,-0.0506354332,0.4386779804,0.7466249538,1.0030441179,0.1217348729,-2.0087948921,-0.2601051037,1.1366977166,-0.0356502926,-0.5335699532,0.4263546388,-1.0405067347,-0.3313623024,0.8619464403,0.9823610588,-0.2276671784,0.0159273968,-1.4408004044,-0.7957704706,-0.0851733126,0.4758928247,-0.1270735752,-0.970149223,-1.5937408891,-0.7011321288,-0.3996290397,-0.3600167808,-0.3049659186,-0.8980863708,0.0859511291,-0.07345679,-0.3479878487,0.5594832161,-0.3583061606,0.670766294,0.0453115803,-1.4833762783,-0.9289276008,0.4454991083,-0.5682405126,1.0190911346,-0.8728689779,-0.5951315366,-0.603000908,0.0615021785,-0.3399343057,-0.3654964045,-1.2204845465,-0.336096602,-0.0592949134,0.0262050499,-0.421549107,-0.9525523231,1.2404666748,0.5454513622,-0.6648999618,-0.2517600433,-0.9137976274,0.5625349787,0.2901202545,-0.4302160542,-0.1272388967,-0.4521143627,-0.5919052068,0.0546836026,-1.0520369927,-0.5988624206,-0.4850495493,0.1667284551,-0.6619811928,-0.1968467192,0.0530151429,-0.473576759,-0.5407438407,-0.1784851617,-0.3026750438,0.571278211,-0.456457095,0.6223566858,-0.2026245729,0.8027668848,-0.3419552456,-0.8989611858,-0.9955047031,-0.7569361556,0.9866888558,-0.9717130015,-1.8083744457,-0.1035898038,-0.0386191199,-0.5989838124,0.1551907336,-0.6137567276,0.8179475009,0.5675336768,-0.0131192043,1.3690142531,0.0342652306,-0.8625253976,0.6261786396,-0.6933538778,1.8554154703,0.9520932621,-0.7937258862,-0.1703945012,1.4106346955,0.4037816031,0.3924223163,1.5121887558,-0.950079949,-0.0978902529,-1.0007074148,-0.0062716224,0.2959525107,-0.4992461626,0.3602001535,0.5855243721,0.400239053,-0.7697940779,0.2951816459,0.374241254,-0.0899583734,0.2373023951,0.0824954777,2.0777610641,-0.7085379325,-1.5284030838,0.3775893443,0.7078265451,0.0859656959,-0.0937216511,0.292301665,-0.0225424786,-0.7069019151,0.201179302,0.5768281492,-0.8581867894,-0.6090106126,-0.9405816588,1.7128696566,-0.5280217876,1.5212574523,0.0123076705,-0.2767152782,-0.7818438338,1.5650434381,0.8501158502,-0.0803984895,0.5657628383,1.2047721324,-1.9562064404,0.4626800391,-0.1060191401,-0.0987710492,-0.2997652513,0.3609622776,0.0464346411,-0.8709697625,-0.6270371487,-0.8069007632,-1.5771168607,0.0849979098,-0.4974010735,-0.3068259582,1.2578373917,-0.400361563,-0.1947360988,-0.0683403579,-1.536716259,0.5073250627,0.2484734126,-0.98284761,0.1025234469,-1.1353776439,0.6106712404,1.8207216641,0.619461475,-0.3315222037,-0.7771370519,0.8547763701,-0.3690372673,-0.3593461234,-0.3212768148,0.3868519884,0.6465366942,0.1612510329,-0.4459468044,0.7279513728,-0.2585173201,-0.9891335891,1.0700503463,-0.7092051994,2.1075146532,-0.2648741866,1.3502487445,0.3224794625,1.0944703353,-1.2244852958,0.4171098647,0.7116321717,0.4982086975,-0.8297876302,-1.4965879098,0.1395498441,-0.2438589685,0.9858325672,-1.2736917898,-0.2506671427,2.6465532262,0.2835965358,1.1532181362,-0.4506409884,0.8575341437,-0.3907312763,-0.5193211026,-0.4023715941,-0.1166845799,-0.4804654285,0.4484738899,0.3544138373,-0.3951399133,0.0997676368,-0.5693416279,0.4540689231,0.7132383814,0.3698809526,-0.4496773298,-0.446160868,-0.8724302242,0.0554946109,0.4184085489,0.1688572884,-0.031123108,-0.8259326054,-0.4262034901,0.3893370675,0.6759626118,0.2035044322,-1.2606958381,0.0138920329,-0.0648883646,0.892911316,-0.2373306265,-0.4366343429,1.0017077037,-0.620727545,-1.6082725221,0.2576366526,-1.908699943,-0.9633337064,0.7281827651,-0.7742750838,0.8738437506,-0.415847901,1.4502166278,0.880115373,0.6855141636,0.3242039577,-0.8295864377,0.6752211641,-0.2909578417,-0.2259104671,0.6900594479,0.4072038966,-0.108630316,0.897610695,0.0752332626,-0.6379542677,-0.2976490019,-0.1105301639,-0.1200894761,-1.2026004803,-0.8442593419,0.1288722402,-0.9213887425,0.4366753372,0.7906356551,0.9656370334,0.4410916566,-0.0848342373,-0.4038789577,-0.8212161688,-0.4603695827,-0.7678247249,-0.5868234944,-0.577658413,0.6864462653,0.1559387858,-0.0619549773,-0.2171152007,1.3690832254,0.6637124242,1.2525847432,-0.8976020791,1.0817081177,-0.0637029846,1.4974302149,-2.5745866254,-0.1035916346,0.5364691642,-0.4582961902,-0.5114418172,-0.1058427277,-0.005532345,0.4715293051,-0.1961066726,-0.149433144,1.3358711126,0.439498217,-1.4318340405,0.333937067,-1.006091473,1.0653873457,-1.7732502821,-0.3152617172,0.0416102057,-0.3461902484,1.263643585
biasActivation=0,1,1
[BASIC:ACTIVATION]
"org.encog.engine.network.activation.ActivationTANH"
"org.encog.engine.network.activation.ActivationTANH"
"org.encog.engine.network.activation.ActivationLinear"
