encog,BasicNetwork,java,3.3.0,1,1484424762414
[BASIC]
[BASIC:PARAMS]
[BASIC:NETWORK]
beginTraining=0
connectionLimit=0
contextTargetOffset=0,0,0
contextTargetSize=0,0,0
endTraining=2
hasContext=f
inputCount=20
layerCounts=1,21,21
layerFeedCounts=1,20,20
layerContextCount=0,0,0
layerIndex=0,1,22
output=-0.0014628537,0.9790678256,0.8199141583,0.999948366,0.5783283234,-0.9365678456,-0.999996054,-0.9999999608,-0.9999988189,0.924419602,-0.9975690719,-0.8462166963,0.9886416127,0.9549678446,-0.996644929,0.8296213158,0.9025239389,-0.999803947,-0.9992600685,-0.9983170691,-0.9816745129,1,0.0095262093,-0.0053230339,0.0014594259,-0.0004856935,-0.0058323691,-0.0007332926,-0.0056261985,-0.0009840344,0.0076335137,-0.0058650541,4,0,0,0,0,0,0,0,0,0,1
outputCount=1
weightIndex=0,21,441
weights=0.8924137994,0.0120370546,1.3183872886,-0.0176559049,-0.8327154747,1.1726537083,-1.9233985113,-0.2424373225,-0.2746830709,1.8970749927,-0.1613481329,0.1950301578,-0.8605707775,0.6880723228,0.0749438498,-0.6033597698,0.2474477942,0.4134439521,1.2479747415,-1.5324256684,0.2428016728,0.5782696271,1.8845876096,-0.4573789402,0.1834294337,0.8374610913,-0.1754828296,-0.4603300961,0.0435185884,-0.0999013624,0.8175413731,0.5566622172,0.6657717106,0.018127315,-1.5446826142,-0.1508566116,0.6339566748,0.4734472594,-0.3492635136,0.9639512548,-0.032427553,0.0609437775,0.4551657726,0.2080248973,-0.1229668944,-0.2665614109,1.0488900512,-1.3386210987,1.1414199593,0.5615139603,1.3358118909,-0.814893632,0.4451876649,-0.6938124152,-0.6840474826,-0.3577440291,-0.1267676501,-0.363505229,0.4022020083,1.8006643745,-0.5158590313,0.3978160539,-0.6302398737,-0.3465521044,-0.7555069689,-1.228678688,0.9489240064,-0.5298960724,-0.8849397181,-0.0028234323,-1.1415301264,0.0230934459,0.7701987225,0.83877786,2.0640843096,0.424489351,-1.1616124017,-1.4421017811,0.895833905,0.4460806824,1.637337738,0.0943060695,-1.2373892116,1.9281109057,0.8704623041,-0.0904404594,2.1429995352,0.0423599986,-0.3495859737,1.6605344307,0.6536779431,-0.4968372194,0.2730650346,-1.2264343584,0.1183240394,0.2201235467,-0.214674837,-0.1579671996,1.2541628434,1.3862844741,-0.3013141021,1.1286909382,0.978269338,1.4713961555,0.1678605287,0.1840895407,-0.2699021941,0.8778585714,1.5115174286,-0.2686499393,-0.9930377837,-1.2079534444,1.1704579837,-2.2058152009,-0.5549703004,-0.2433442414,0.1200726678,0.0969680288,0.1635020018,1.1693021892,0.8555357931,-0.0607083521,0.639693831,0.1846721593,-0.6778629936,-0.7340675383,1.8970481939,0.9908584368,-1.8235605439,-0.2239845359,-0.5122846314,1.9049072295,-0.3294775033,-1.7593913595,-0.9478703395,0.3648279144,-1.354504742,0.4195344795,-0.5575406197,-0.2741117784,0.2716466602,0.8424448677,-0.4944267146,-0.2044376682,-0.5600948532,0.3534050274,-1.1560054825,1.1463159454,-0.9556373832,0.9870124192,-0.8066477488,-1.2152217592,-0.3906641006,0.9868132096,1.345104546,-0.2119424272,0.4810400144,-1.8661893115,0.0651674881,0.4228944091,-1.0330455985,-0.1420295217,-0.5280144563,-1.5043302029,0.5554961564,-0.1706752176,0.7959484304,-1.4235612183,-0.5473690936,-0.1621286767,-1.2045585411,1.4838479587,0.8185509652,-0.2527480176,0.5160673258,-0.335367905,1.5308400944,0.513911176,-1.5567006291,1.2450220826,-0.317736069,0.4574615675,-1.1494853694,1.0914842034,1.1714753764,-0.3390621236,0.3920524982,0.8414084213,-0.9390013603,-1.2422104087,1.1079509518,0.220891733,-0.9937741485,-0.953325986,0.2914277609,-0.9511228273,0.302526735,0.0802626385,-1.0990222645,0.5065868387,0.4294961641,0.4620626088,-0.7264266088,1.1092831285,0.1307195066,0.918872361,0.627489067,-0.2569440839,1.0000414476,-0.4082882839,0.5010238998,-1.0695847064,-0.5093138771,-0.5289113241,0.5973793596,0.1449631355,1.3681735622,0.1993327146,0.7388134024,-0.3347013205,-0.6970684676,-0.6759307072,-0.5824992349,1.6626003737,-0.2116881839,-1.3838722996,-0.4034542474,0.7963341353,0.3631818473,-1.1443317196,-0.5735311581,-0.5197332441,0.2519722656,1.0931283214,-0.5507126002,-1.6638083613,0.5049971682,1.0023100604,0.0277583977,1.2990300068,1.5801430386,-0.4970877263,-0.6296899439,0.6813611146,-0.1188885878,-1.0710587655,0.2703442686,0.6311624619,-1.8742889529,0.775207719,0.6161253098,0.7457901188,-0.3168179633,0.8546630246,0.5714613991,0.1657108709,-0.1411295537,0.0577045624,-0.1944295561,-0.8261585798,1.4631515445,-0.9114135,0.7463576795,1.1116235292,-0.8699495363,-0.9248175652,1.263928761,0.9043730038,1.0786829626,0.0125080435,1.2403592938,-0.36788848,-0.4151935946,-1.287564601,0.2994242131,0.1116200385,-0.759285255,0.7711691673,0.8984829758,-0.8600900869,-1.6668816715,1.1459302508,0.3773234008,0.1304966956,-0.0338099689,-0.3637075575,-1.5783154559,1.5654193277,0.670979868,0.8233859792,-0.7902785604,-0.2516366941,0.592440438,1.3688599401,1.1784948006,-0.0447404066,-0.380822989,0.4276255908,-1.0672577896,2.0579671931,0.5019568983,0.9901814316,-0.1150250875,0.5380412345,-0.41759445,-0.7884855161,-1.7521184853,0.1174088708,-1.4914687889,-0.1863878621,-0.007808852,0.1483725858,0.2307219861,1.3609284472,-1.5315821373,0.0863341172,-0.1651035822,0.0338978808,0.4528996777,1.1734363028,1.135617965,0.3225381305,-1.6142049714,-0.6923149301,-1.5505018082,-0.002532743,-0.3943045442,0.5109127612,0.1856877232,0.5891945146,1.2476443489,-0.766095385,1.3249812222,0.8126497098,-0.5940939795,1.1996144747,1.4194880833,-0.2016882122,-0.1112144445,0.1406724364,0.0011012785,1.8406602539,0.5573107646,1.7128881531,0.3641570783,0.0867584331,0.5262135635,0.2775275432,0.030812737,-0.4258337757,0.6879416189,1.2749022769,0.5672008186,0.7960621745,-1.220206014,-0.1403103075,-0.6296483368,1.1514523903,0.1602493672,-1.6378282101,0.7694648227,-1.0464781682,1.0505014409,-0.3695742507,-1.0223616772,0.9951784155,0.4236121631,-1.3766059731,-0.3988963479,0.6865749568,-0.5152026075,-0.7301678994,0.5528130717,0.2366041638,0.2059020567,-0.7421904284,-0.2450835772,0.8704540365,0.6331929223,-0.0066297816,-1.9708564486,1.4374863668,1.2411107217,-0.0869886701,-1.1957485699,0.2254544725,-0.5794882039,-0.5444824527,-0.8817734015,1.3871315982,0.3991450386,1.4776070166,1.4827508166,0.1635419603,-0.5146747141,-0.0697827086,-0.1855491614,0.0760708386,-0.4243648842,0.1474699175,-0.5454962773,0.9321982069,0.3793086841,0.7640545582,-0.6687325537,-0.7601049177,-0.8417077284,-0.3904354989,1.0259437076,-0.7662096319,-0.6332255644,0.0286516013,-0.700647529,0.3589457924,-1.5344771885,-0.6112561424,-1.0776227921,1.1883414703,0.5119634953,-0.4725494159,-0.0668818717,1.8040583619,-0.0925109171,0.3597939846,-0.1741035734,-1.141327188,0.2498847299,0.1299420731,0.9056659534,-0.8952116614,-0.5014357713,-1.0056859832,0.0176741777,0.9042269991,0.948523228,0.0656993855,0.1498029693,0.5459775429,1.5851419827,0.6062907966,-0.3378917577
biasActivation=0,1,1
[BASIC:ACTIVATION]
"org.encog.engine.network.activation.ActivationTANH"
"org.encog.engine.network.activation.ActivationTANH"
"org.encog.engine.network.activation.ActivationLinear"
