encog,BasicNetwork,java,3.3.0,1,1484504508492
[BASIC]
[BASIC:PARAMS]
[BASIC:NETWORK]
beginTraining=0
connectionLimit=0
contextTargetOffset=0,0,0
contextTargetSize=0,0,0
endTraining=2
hasContext=f
inputCount=20
layerCounts=1,21,21
layerFeedCounts=1,20,20
layerContextCount=0,0,0
layerIndex=0,1,22
output=0.0087786419,-0.1435240812,-0.5284154872,0.339551659,-0.1747971772,-0.0066235094,0.5719874795,0.4786767378,-0.3772322332,-0.2152897725,-0.5430354282,-0.5475157511,-0.1835846716,-0.530484664,0.4190973356,0.1687439416,-0.17603202,0.6183146887,0.738037059,-0.0896804635,0.2865590099,1,0.0167453406,0,0.0012668497,0,-0.0008434416,0,0.0012662726,0,-0.00505898,0,0.0008475,0,0.0046570277,0,0.000842815,0,0,0,0.0071578947,0,1
outputCount=1
weightIndex=0,21,441
weights=0.8358233458,0.3468282204,-0.5010503542,0.9230211358,0.7450563194,0.0598743916,0.2924666805,-0.4666663649,0.8857721091,-0.2911853938,-0.4107869738,-0.03497045,-0.090981214,0.7382130768,-0.1290085216,0.0510891232,-0.8795476186,-0.1893231836,-0.5031413486,-0.796436432,0.639157503,0.0243699385,-0.7079369579,0.1291968568,-0.7369854923,0.3636240735,0.1763476082,0.7198737324,0.5118147235,-0.4409883566,0.6618656572,0.013552852,0.1891595998,0.0879403439,-0.5543686093,0.6329931973,-0.6678128789,-0.4218860968,-0.7561386032,-0.9291986097,-0.5735682997,-0.1422329203,0.8844918668,0.1741155825,0.3897718753,0.5223991081,-0.0592263502,0.4949904842,0.7695361565,0.1556886006,0.8279985196,0.1084658466,0.57303752,0.3916710421,-0.2522844346,0.1704829593,-0.1758507899,-0.4165623513,0.9637237484,-0.0818355105,0.1410538667,0.0974291298,-0.6002569213,0.8386222471,-0.6194142248,-0.3349330792,0.7911025795,0.8771044186,-0.6115735585,0.3984553643,-0.7105536045,-0.6280556028,0.9137080387,0.092597236,0.7805763979,0.7260477312,-0.6185201925,0.5341674175,0.1947666851,-0.6103566761,0.1303181556,0.8520429911,-0.718905005,0.3270161408,0.7552479093,0.505126149,-0.2707397877,0.493561741,-0.254291202,-0.3599221456,0.9245929113,0.946108617,-0.3969300283,0.07265763,-0.3012468829,-0.7440191782,-0.6987687509,-0.097814781,-0.2888253472,0.1297879308,-0.2898627719,0.6401175416,-0.0725789873,0.7579660575,-0.1880355905,-0.3063011893,-0.1393793129,0.4716822065,0.5172566878,-0.6373137785,0.0181203892,0.1257983721,0.7486992757,0.0894513964,-0.9206125332,-0.1142926016,-0.3359652039,-0.8303466928,-0.6536701773,0.9519805347,0.24012586,-0.3334413576,-0.9740026572,-0.407289892,-0.5809177456,0.0037404671,-0.1507616149,0.6445323555,-0.8970648557,0.4551703433,0.237138149,0.4279035425,0.1373346976,-0.9588753436,-0.6842914436,-0.8016758007,-0.510126357,-0.4170997858,-0.1395137591,-0.5436050524,-0.5814310281,0.4595115665,0.6083982404,-0.2258879473,0.0702241755,0.333587531,0.651766506,-0.5152781402,-0.5939033856,0.5160364142,-0.647725778,-0.9421428548,-0.5387318879,-0.0673634383,-0.3650553021,0.4746208199,0.9840348527,-0.0038252174,0.0391937082,-0.021760074,-0.6963572627,-0.0688572645,-0.6625580964,0.1384673916,-0.92678415,0.7450177344,0.4533389967,0.5257626554,0.7512013309,0.0725966173,0.5933097553,0.8932474267,0.1465564423,0.9060652337,0.530449285,0.0170360455,0.2861935361,-0.769313849,-0.7557732656,-0.8064625319,0.8755403327,0.0624644524,-0.6485015979,-0.3352806062,-0.6496267841,-0.6033799149,0.001498294,0.2711059042,-0.4121607726,0.8765024857,-0.8769040433,0.8840913537,-0.3865040699,-0.1730414647,-0.4200269854,0.1912194722,-0.2245531983,-0.5120416908,-0.6752606737,-0.0164006613,-0.8014418166,0.5340214104,0.4757400265,-0.8354833598,-0.8298479467,-0.3945333514,-0.0301540873,-0.0146487684,-0.6269782528,-0.2391515345,0.4410083109,0.2705721984,-0.7864968918,0.6113045472,-0.0269109939,-0.4229347771,-0.4509392664,0.982533838,0.9178796527,0.0236103803,-0.1074276999,-0.5348561354,-0.0592793536,-0.6262575371,-0.4039585365,0.0320374872,0.0742049468,-0.1561910863,-0.8133747464,0.6962242022,-0.6031174625,-0.128715534,-0.4048770084,-0.4194554791,0.6561812623,-0.2976071279,0.8026147739,0.0464234441,-0.2613104028,0.9810006174,0.7003580818,0.1260124551,-0.3098852074,0.9035029659,-0.5372685106,-0.1700847165,0.8484853599,0.0940936689,-0.5833488493,-0.303471834,0.0992504614,-0.6094856432,0.4972157964,-0.9751170912,0.9294040935,-0.8182819878,-0.0910191113,-0.0145654883,0.8923299576,0.7744141353,0.2571439103,-0.4318947215,0.1680754546,-0.9755977207,-0.0135579167,0.1772354936,0.828708677,-0.2557035889,0.1732550447,0.5311505191,0.2453377696,0.1500846313,-0.1976330157,0.2228594289,-0.2549232151,0.5876389315,0.6232235555,-0.4043628947,-0.9575104665,0.5033936878,0.8056190646,0.8167755524,0.9229501646,0.5378133501,-0.1479230103,-0.3454963017,-0.5227814535,0.1646004602,-0.7051435198,-0.3357483003,0.0578566554,-0.576987079,0.4873804912,-0.5869976598,0.5458640183,0.3029833918,-0.9125606668,0.5589556259,-0.8926112335,0.0667604682,-0.4346109339,0.2965999019,0.4433276053,0.471564051,0.4921756941,-0.4676994675,-0.8566951272,-0.7595083453,0.1601048735,-0.8291712461,-0.2156864753,0.0193813851,-0.7638068426,-0.2823001854,0.4495570273,-0.4212450072,-0.8450925866,-0.7918247421,0.6040494056,0.4217417504,-0.5561366157,0.0671924928,0.2510627541,-0.6215833055,0.6257105757,0.9694950748,0.857354181,0.1399815971,-0.8738538291,0.3972248814,-0.8410378901,-0.9567058639,0.0958430798,0.2960022664,-0.1221096652,0.17162949,0.0244182874,0.7218314563,-0.5822906831,0.1168671306,-0.4771547291,-0.3857316652,0.6031774602,0.0220390563,-0.5124921721,0.1055734793,0.5472588505,-0.9687782818,-0.1800800292,-0.7337471631,-0.4518090272,-0.629159403,0.6943540966,-0.5125149924,0.0702299868,-0.0362683379,-0.1810620594,0.7285561454,0.4004501246,0.1919833211,-0.7386963268,-0.2335242187,-0.5827015728,0.9536034708,-0.407864757,0.4861162891,-0.1878439683,0.29397667,-0.9768191107,0.9089998095,0.7172320505,-0.1894063327,-0.9733324669,0.2647157958,-0.3822939135,0.8267048255,0.3996571277,0.7006434648,-0.8131001114,0.4906158076,-0.5266942074,-0.8181398474,-0.4389186433,0.8101118777,-0.6608400442,-0.6989369885,0.5322004683,-0.3967125907,0.3211748258,-0.2788072839,-0.0375777889,-0.8149690449,0.186902156,-0.3314072663,0.3792208607,0.8382267119,-0.862343039,-0.8397519553,0.9695140061,-0.1480189531,0.3564312951,0.5537270869,0.1481370469,-0.124091862,0.3647970031,-0.3482555688,-0.65967225,-0.6205454132,-0.5617756726,0.597787066,-0.1418811717,0.0962569363,-0.5291105847,0.0476373851,0.1161961514,-0.0506981638,0.5703379186,-0.3743247675,0.9060967836,-0.0892635851,-0.7837788542,0.8981334002,0.3049023974,-0.803227141,0.4579225208,-0.2782442622,0.7548600926,-0.9346566145,-0.229727463,0.2677385866,-0.4347454788,0.3047555962,-0.1878996968,0.2038506814,-0.4235539227,-0.5271422677,-0.5633031238,-0.4849852213,-0.8608789842,-0.2769253483,0.313582509
biasActivation=0,1,1
[BASIC:ACTIVATION]
"org.encog.engine.network.activation.ActivationTANH"
"org.encog.engine.network.activation.ActivationTANH"
"org.encog.engine.network.activation.ActivationLinear"
