encog,BasicNetwork,java,3.3.0,1,1484597585488
[BASIC]
[BASIC:PARAMS]
[BASIC:NETWORK]
beginTraining=0
connectionLimit=0
contextTargetOffset=0,0,0
contextTargetSize=0,0,0
endTraining=2
hasContext=f
inputCount=5
layerCounts=3,7,6
layerFeedCounts=3,6,5
layerContextCount=0,0,0
layerIndex=0,3,10
output=-1,-0.9999999826,0.9999999999,0.9763157246,0.9999818419,0.1276052042,0.7260620342,-0.6051469014,0.8492006553,1,0.9760563991,-0.6511627907,-1,-1,1,1
outputCount=3
weightIndex=0,21,57
weights=-0.2322466667,-16.2141828152,1.4541155142,-0.8161440855,0.9470153138,0.7543248528,-1.5547741663,-4.6477191778,-0.2076919209,-9.2355607848,-0.840076721,0.9756319246,-1.2002422741,-1.1369682495,0.1274465544,1.0463379072,-4.0794047023,-2.5963750429,0.4188795329,15.5983213642,0.281019413,-0.2288618725,-0.0393265809,-0.204390812,-1.3776411601,0.786245761,0.041585508,0.2259534645,-0.0140045949,-2.4154030844,0.1229727918,2.4719297494,0.8107445076,-0.1554878537,0.1517645635,0.448686389,-0.7458888794,0.2493209588,-0.1676304452,0.3211605574,-0.9280484747,0.239215187,0.3586700105,-0.3929845833,0.9934363957,-0.2858399565,-0.4544869266,0.7811568272,0.7062084196,1.1378979461,-0.3687101387,-0.1748306795,-0.3608699236,0.3378637925,-0.6129274095,1.3582058549,-0.4443306167
biasActivation=0,1,1
[BASIC:ACTIVATION]
"org.encog.engine.network.activation.ActivationTANH"
"org.encog.engine.network.activation.ActivationTANH"
"org.encog.engine.network.activation.ActivationLinear"
