encog,BasicNetwork,java,3.3.0,1,1484593182530
[BASIC]
[BASIC:PARAMS]
[BASIC:NETWORK]
beginTraining=0
connectionLimit=0
contextTargetOffset=0,0,0
contextTargetSize=0,0,0
endTraining=2
hasContext=f
inputCount=20
layerCounts=1,21,21
layerFeedCounts=1,20,20
layerContextCount=0,0,0
layerIndex=0,1,22
output=-0.7312125662,-0.9785573495,-0.3398052211,0.938899515,0.9952611635,0.9293585794,0.6519588427,-0.9973478156,0.9399947752,0.8721654784,-0.9897094414,-0.7955906134,0.1833643746,-0.7073670476,-0.9990837463,0.997758936,0.9496047989,-0.9606906733,-0.9689153423,0.8286331169,0.9179477793,1,1,0,1,0,-1,0,1,0,-1,0,1,0,1,0,1,0,0,0,1,0,1
outputCount=1
weightIndex=0,21,441
weights=-2.0197962801,1.0508048741,-1.15922118,1.3203235716,-0.8711760469,-0.8651342855,-0.8440380981,0.8763602012,-1.2813516011,-0.6266700119,0.8163271055,-0.9992700018,0.0033037041,0.6453236318,0.7017439824,0.5373470846,0.7617333309,0.1446008236,-1.1864483696,-1.0172338385,0.4871196973,-0.0722208065,0.7682674036,-0.0462152135,0.1033893525,0.9511734658,0.5496982996,-0.0943244163,-1.0397245762,0.1007548784,0.5479573776,-0.6752351297,-0.517728861,-1.1947615581,-1.0452585902,-1.0977583883,-0.8427703515,0.7709744736,0.0416368826,1.0447978283,0.5792852451,0.9252753818,-0.7833210424,-0.0967603561,0.1925543347,-0.4517921774,0.7723560597,0.6347061559,0.1672001769,-0.8022850938,0.7966410245,-0.5549758874,0.2103139238,0.909415779,1.4067425032,0.7993656521,0.0848274879,0.7699934438,0.0699985193,-0.5813350604,0.0913906808,-0.5641129215,-0.1545832878,-0.582528733,-0.3359168609,-0.8611121033,0.0010808128,-0.095806877,0.0729004703,0.4297955994,-0.5604710899,-0.8253093321,0.155776648,0.9418293862,0.4039079741,0.5112361761,0.0767783227,0.8780090981,-0.5125591912,-0.5946945082,0.5338354207,-0.7069928957,0.576840856,0.1973252763,-0.2630708882,0.2002611396,0.5744311683,0.466667182,-0.4683113879,0.1384883781,0.7653947096,-0.195986454,0.7909174605,-0.5099306615,1.1113069783,-0.7904944114,0.0010702473,0.6987897022,0.7193595463,-0.3685356899,-0.7782774591,-0.6492446167,-0.2974738567,-0.5186777963,0.7329574659,-0.2254730058,-0.7928240131,0.8182077057,-0.2176318531,-0.9988870924,0.736706227,0.7053490991,-0.588538501,0.9900569928,0.4347195421,-0.2215289157,0.8119068268,0.2523150956,-0.3831394272,0.5698951356,0.7196811316,-0.4314149528,-0.741051043,-0.1289847279,0.3249705706,-0.1249473773,0.1913304189,0.3079256433,0.2181051792,0.1424935762,0.7399448613,0.5797679797,-0.6949803887,0.0498297116,-0.393701934,0.1059528558,0.1640192183,-1.0091218201,0.2167119004,0.0245424145,-0.977220874,-0.0130456545,-0.4765742629,-0.1537472694,1.0561686709,0.3182548601,0.950806952,-0.1945843296,0.2151300168,0.6948285815,0.0202512672,0.2784758345,-0.6373049189,-1.0435919034,0.5698978431,0.0123625461,0.0170592153,-0.6153922634,0.7622880051,0.6621018969,0.7560940448,-0.4023750577,-0.4187713009,0.1720971014,-0.6904319129,-1.0996122657,-0.9238133276,-1.0226322248,0.0065297053,0.6966295811,0.0240065444,-0.1311986033,-0.5887942807,-0.8097699424,1.2348212175,0.3621739513,-0.1339366718,-0.7671793365,-0.4764704973,-0.1937269468,-1.3876254286,0.1371926812,-0.3584869535,-0.0646271898,-0.3234341375,0.1997780314,0.8998387721,0.3014214381,1.0726601475,0.3241754471,-0.8079676059,-0.959094309,-0.6328086101,-0.2335158007,0.3509339162,0.5209460828,0.1027174222,0.1501200595,0.6048664608,0.7539858512,-0.8630863661,0.9062728291,0.34946367,0.460021199,0.927149397,-0.5811895865,0.1461458987,-0.972043568,0.9563023009,0.2243979378,-0.3492002886,-0.6243285928,-0.0013349083,0.2221567782,0.6536271461,0.7505228397,-0.2273725399,0.3811771901,0.4323350237,-0.7708543589,-1.3897234342,0.7589701978,0.4023938354,-0.7503628398,-0.8393304865,0.6220089067,0.5430641795,-0.5838119381,0.4805410627,0.295130417,0.3777303954,0.0989267812,0.0943997636,-0.6184289499,0.3272779426,0.1234080165,0.6983380463,-1.0201988261,0.3504068273,-0.5344338377,0.3067464533,0.831508379,0.0377370407,0.0531868049,0.0260675016,-0.9983274282,-0.8249918516,0.2049045613,0.4843413601,0.7978840169,0.3180035933,-0.6420588488,-0.3522859205,-0.8269768133,-0.9509877827,0.5326906708,0.8315746744,0.5315764273,1.0976215588,0.9486977275,-0.4885972227,0.1328955914,0.1776076848,0.2103332077,-0.2552579923,-0.5915196939,1.3545930656,-0.7546254309,-0.1403164688,-0.0121714259,-0.8594696893,-0.8500643334,0.316618438,0.0459960147,-0.4702144148,0.3445144296,-0.9795204777,-0.490001843,-0.4599272742,-0.4942446028,0.4470769989,-0.6216949127,-0.7443765755,-0.0768500285,-0.2375715397,-0.2902488539,-0.9054574753,-0.9369742765,0.3523904286,0.3571670244,-0.4974659437,-0.7040066041,-0.9007165432,0.1182228542,-0.544936568,0.008826088,-0.3364089616,0.4590791812,0.501953963,0.4188497781,-0.6118093697,0.112739702,-0.487279057,-0.6878196966,-0.4031830865,0.1267637907,-0.5649137208,0.1466555333,-1.0473753886,0.8519097912,-0.1170452716,0.2559028785,0.5378401108,0.6517673125,-0.8584912415,0.75266404,-0.6129743944,0.0848059251,-0.2858762828,-0.5226298203,0.5325311753,0.1672842477,0.5395981372,-0.1981987968,-0.8541091155,0.3316812519,-1.0271466035,0.7854877403,-0.0496031485,0.9790287466,-0.0493565386,0.3196295417,0.0184127612,0.0700231706,0.4038067235,-0.4953884561,0.1851492997,-0.0624697553,0.1451525353,0.6456017282,-0.0015322552,-0.0481871015,0.5893922533,0.4549290534,-0.8937687015,0.1759617959,-0.3569606104,0.3375550135,0.5630617292,0.3910950186,-0.5250423101,0.7778650849,0.9638603913,-0.0149920322,-0.6321290433,0.6234942787,0.9638181943,-0.793676079,-0.2055003979,-0.1052152876,-0.9920575546,-0.6449161179,0.6500731471,0.5414971286,0.833206144,0.6144652021,-0.7250456345,-0.4714739626,-0.090786836,-0.4902788616,0.5415496313,0.7195515026,0.3261994432,0.4660645748,-0.1728586568,-0.8062204811,0.5208457395,-0.5794300072,0.1972638261,-0.1808926204,-0.9762722969,-0.8429898685,0.1895047183,0.9808352028,0.1085460684,0.6608640081,0.1903211783,-0.6372529154,0.2276166475,0.5473323393,0.0725763169,0.2356261335,-0.7419736976,0.0830958239,-0.6287264001,0.7636922193,-0.7051978136,0.0649866828,0.1230049926,0.5225125947,0.061053375,0.4591864897,-0.0512930228,-1.0791328472,-0.4271580472,-0.327385627,-0.5788789222,0.3561912267,0.539735138,-0.6824527441,0.0252519451,0.7798860877,0.3863188569,0.3741278073,0.6352519853,0.2753481417,0.910988054,0.6299240554,-0.6778515809,-1.294981653,-0.655176389,0.1466965872,0.7414194797,0.0152615804,-1.2251221253,-0.7314249355,0.6142058398,0.6925009957,0.4495667579,-0.7090233723,0.8331086376,-0.9258187144,-0.2573357459,1.0147854288,-0.3456665095,-0.0661921296,-0.0503729403,-0.4619952104,-0.8294946382,0.6773671631,0.6992115312
biasActivation=0,1,1
[BASIC:ACTIVATION]
"org.encog.engine.network.activation.ActivationTANH"
"org.encog.engine.network.activation.ActivationTANH"
"org.encog.engine.network.activation.ActivationLinear"
